<?xml version="1.0"?>
<opencv_storage>
<opencv_ml_svm>
  <format>3</format>
  <svmType>C_SVC</svmType>
  <kernel>
    <type>RBF</type>
    <gamma>1.</gamma></kernel>
  <C>1.</C>
  <term_criteria><epsilon>1.1920928955078125e-07</epsilon>
    <iterations>1000</iterations></term_criteria>
  <var_count>9</var_count>
  <class_count>3</class_count>
  <class_labels type_id="opencv-matrix">
    <rows>3</rows>
    <cols>1</cols>
    <dt>i</dt>
    <data>
      0 1 2</data></class_labels>
  <sv_total>9</sv_total>
  <support_vectors>
    <_>
      -2.40866244e-01 1.04205346e+00 -2.09042937e-01 3.38853627e-01
      -4.64687496e-02 -1.18985504e-01 -2.49250308e-02 -2.98968628e-02
      2.50673681e-01</_>
    <_>
      -3.24563622e-01 1.08376539e+00 -3.02105457e-01 -2.69604951e-01
      -1.12169739e-02 1.53103009e-01 1.85564496e-02 3.96577306e-02
      2.32353866e-01</_>
    <_>
      -2.28706151e-01 8.93954813e-01 5.80614746e-01 -6.73554912e-02
      3.91627587e-02 -3.85952704e-02 -6.32174639e-03 -9.44253244e-03
      5.77117503e-02</_>
    <_>
      1.64153731e+00 -4.19195831e-01 -1.66215710e-02 -6.48525283e-02
      -1.04975328e-01 -6.11351021e-02 -2.67412633e-01 7.55030438e-02
      -2.63368398e-01</_>
    <_>
      1.61852300e+00 -3.71062577e-01 5.29081421e-03 -4.74901535e-02
      -2.09919736e-01 -5.85211441e-02 2.33635008e-01 -5.98130189e-02
      -2.15796486e-01</_>
    <_>
      1.58637977e+00 -3.11563432e-01 -2.67376211e-02 1.04345925e-01
      3.26559186e-01 1.26329824e-01 4.07472178e-02 -1.81127526e-02
      -9.85709354e-02</_>
    <_>
      -1.36412406e+00 -6.64194643e-01 1.87819563e-02 1.98853314e-02
      -7.63677284e-02 1.46196812e-01 -9.16498825e-02 -2.11016744e-01
      -1.86785206e-01</_>
    <_>
      -1.36189866e+00 -5.97437680e-01 -1.28933728e-01 -1.50072515e-01
      1.58247620e-01 -2.66751587e-01 3.11637763e-02 2.50384794e-03
      1.68320820e-01</_>
    <_>
      -1.32628119e+00 -6.56319618e-01 7.87538588e-02 1.36290804e-01
      -7.50211701e-02 1.18358940e-01 6.62069321e-02 2.10617229e-01
      5.54624274e-02</_></support_vectors>
  <decision_functions>
    <_>
      <sv_count>6</sv_count>
      <rho>-1.0391766455367026e-01</rho>
      <alpha>
        3.8985653931662578e-01 4.3273306297215275e-01
        5.6788474324601079e-01 -4.1955653311019309e-01
        -4.3416510787517837e-01 -5.3675270454941804e-01</alpha>
      <index>
        0 1 2 3 4 5</index></_>
    <_>
      <sv_count>6</sv_count>
      <rho>-9.9851308779821110e-02</rho>
      <alpha>
        3.9377983789425092e-01 4.4395082436702343e-01
        5.8373420280728161e-01 -4.7686006196581371e-01
        -5.6869115632761347e-01 -3.7591364677512878e-01</alpha>
      <index>
        0 1 2 6 7 8</index></_>
    <_>
      <sv_count>6</sv_count>
      <rho>5.6704616800651751e-03</rho>
      <alpha>
        3.8391736166164514e-01 3.9403631501380254e-01
        4.8408748024367515e-01 -4.3225439471389709e-01
        -5.0093719779562040e-01 -3.2884956440960544e-01</alpha>
      <index>
        3 4 5 6 7 8</index></_></decision_functions></opencv_ml_svm>
</opencv_storage>
